      82       2       1
      20      20
       1    2101
  0.3983864840850433	  0.3069574771282231	  0.0698178877961357	  0.2603111860938950	  0.4187770947921640	  0.4057810591383571	  0.3081598050545911	  0.1447292894386997	  0.1914904105157522	  0.0674652658637943	  0.0225745180074113	  0.0225583792953376	  0.1157635239138465	  0.1156928686067138	  0.2287666386959967	  0.1143663355151714	  0.0982544879134906	  0.3804169846474524	  0.0942453450930036	  0.1034767569772088	  0.0387588012865150	  0.1411709510579040	  0.1237011253816821	  0.1153854895664648	  0.1898740297441935	  0.1854380853158431	  0.3006506886689784	  0.0530579044757905	  0.0977622362815298	  0.0040185079364185	  0.0160126282665412	  0.0093338732657803	  0.0560400061452496	  0.0280552826111507	  0.0558271911793899	  0.0284783234142925	  0.0095100244757035	  0.0969898046522836	  0.0485147704772861	  0.0486238767671043	  0.0485646979633068	  0.0242551130063444	  0.0977727120312990	  0.0832915679566375	  0.0828524013053684	  0.0118123822473657	  0.0341200048683282	  0.0162782448073186	  0.0167223041079678	  0.0166171631150411	  0.0579870712516972	  0.0309443017156669	  0.0574175968582990	  0.0294513654228339	  0.0578890912661120	  0.0582749731688657	  0.0259340153352329	  0.0987154496367573	  0.0249592618697869	  0.0487794340485428	  0.0485367767384672	  0.0972938817453220	  0.0491169727861379	  0.0837421420914488	  0.1646632832178965	  0.1650024718751911	  0.0824656080859359	  0.1383569941996039	  0.0050832010897205	  0.0179182581770243	  0.0111419495403320	  0.0449897103226962	  0.0376377166816921	  0.0380454080146666	  0.0515992931839014	  0.0501378178176898	  0.0681824695745416	  0.0824047710265720	  0.0829606465198017	  0.1351685920074285	  0.0206276959083677	  0.0464988547110867	  3.1222650346462562	
  0.9868906141343288	  1.3128702788774853	  0.0918682179187733	  0.3752308143229339	  0.6917315103114512	  0.7219497341480134	  0.6727547813193999	  0.2098330460001249	  0.4705223758627544	  0.0762866131931605	  0.0263011369905609	  0.0260332494758311	  0.1379110279465736	  0.1385311645389295	  0.2865761839405719	  0.1469529505596903	  0.1252308959998873	  0.5226759678561509	  0.1354783650031069	  0.1596174609158395	  0.0431753721675516	  0.1663195686334390	  0.1519550224362607	  0.1526202946789914	  0.2629137577881785	  0.2787511799912534	  0.4989793309313261	  0.0611657796029944	  0.1749544303247484	  0.0041805541660077	  0.0168938247532160	  0.0099735458837745	  0.0600740469970843	  0.0305573503771917	  0.0609120386143929	  0.0314591894330050	  0.0105874114314383	  0.1077837072714196	  0.0541183893841620	  0.0555382904860518	  0.0550772737090105	  0.0270614669232749	  0.1136699342018450	  0.0970176387605900	  0.1005021614434841	  0.0145466614194729	  0.0358846752859430	  0.0173825172891964	  0.0179340691128249	  0.0178088313047636	  0.0628055287596436	  0.0329612022197390	  0.0632604572524457	  0.0320020951553172	  0.0646987695944753	  0.0657571497434190	  0.0285290484783692	  0.1142459543264762	  0.0300981690603954	  0.0544001001477517	  0.0553628875067232	  0.1135401128319337	  0.0590906415472838	  0.0979564779679768	  0.2009276914811348	  0.2057601237218993	  0.1062926705301753	  0.1823741477208153	  0.0052453256890594	  0.0192573445818731	  0.0116978507952890	  0.0480778412710779	  0.0408972954556711	  0.0425246147320404	  0.0585444394936173	  0.0609091239113776	  0.0943944103448467	  0.1037438577147899	  0.1094251343191570	  0.1934782645969184	  0.0215821457905605	  0.0680730404540565	  3.1222650346462562	
                 -0.01755405424172045564
                  0.27446698482155978960
                 -0.20039625590139117928
                  0.05772292645229437635
                  0.02265291798273367380
                  0.02927459801480170043
                  0.13051598621826432378
                 -0.02168878837279330368
                  0.26416726656693617636
                 -0.03503360931174608756
                  0.13996712134396624427
                  0.18260778298239757622
                  0.01550054158610068150
                 -0.09473950622126077470
                  0.03259450917856653029
                  0.01009371406860067912
                  0.00912208604049281023
                 -0.00451689453547966541
                 -0.01209778045351434482
                 -0.00774195320848444345
                  0.00645662359088084673
                 -0.02252515827874011778
                  0.01628826737125813051
                 -0.03847264423343716572
                  0.00419283362913181953
                  0.01147340175957073383
                  0.09685069331154913530
                  0.01851223533304952734
                  0.02435905907451420965
                 -0.04383618372226349980
                  0.08836079053824283380
                  0.06097273430792015531
                 -0.04089621638218199351
                  0.10159447860467446523
                 -0.01162765709070693286
                  0.05751308122750117824
                  0.03557489192415312640
                  0.01153021252159090737
                 -0.07298800369737921956
                  0.02757691103836319713
                 -0.05445928518843620031
                 -0.02343943857126740485
                 -0.01762177521219602042
                 -0.00249784139200919441
                 -0.06946643495996665529
                 -0.11166988513677530981
                  0.01963786229596382188
                 -0.08332211947619537484
                  0.01445064632530934298
                  0.07722677845111332318
                 -0.02074630938279147310
                  0.04503611534848762227
                 -0.02688647566295060756
                 -0.01993599343821347847
                 -0.01174528704992467559
                 -0.05035516679225254116
                 -0.01729940117736680424
                  0.00280395836669579705
                 -0.07862811163164483419
                 -0.02171565626518062037
                 -0.05845502150554887644
                 -0.02674402129387117369
                 -0.00068862274197743583
                 -0.02605596229103705752
                 -0.02727145644329199980
                 -0.01506664189330594178
                 -0.00206039466718443065
                 -0.00926257074256426997
                  0.02941495012180789584
                 -0.06957879944119453597
                  0.08066826386816013106
                 -0.00890911187993549507
                  0.02142595031476419304
                  0.01001946944393689032
                 -0.01359595532216584593
                 -0.05533034113295339645
                  0.04902042829892477860
                 -0.06325051084882522823
                 -0.09265877312362442997
                 -0.01912777659009609610
                  0.00879706355946862847
                 -0.19043153931127146383
                 -1.80717919910246238580
                 -1.06359244866039581723
                 -6.68286758604328845479
                  0.59203195505522276942
                 -4.12987397841198333737
                  4.21519326417468409574
                  1.86310340017659670231
                  4.41362220376037939218
                 -4.43242843633912819712
                 -2.08994084950097436248
                  1.25439215024631334217
                  1.81689964616125121388
                 -4.54333174410856610592
                 -1.83848291070021452320
                  1.28823179093624973213
                  1.43086867777655468714
                 -0.35129793339872567026
                  1.03544056097908754310
                 10.63153530782704514479
                  3.87106248272879716055
                  4.96148738098829245047
                 -3.17611453959950162940
                  4.26663399459461167851
                  0.17748160815750199659
                 -2.09282308409342743261
                 -0.79522533755921231968
                  0.93380217396707476674
                  0.13141360016280234646
                 -1.79772425666195556637
                  7.38144989063863210532
                 -8.08945495096456745898
                 -3.75739300590511282607
                  1.66786375026528332910
                 -1.51572625564552065924
                -15.07071705125606797537
                  6.96141366482213719280
                  6.00202304312139922615
                 -7.66969541993221959331
                 17.81712290444799151601
                  4.41316048699622331952
                 17.06157272635061872279
                 -1.83388918381517118661
                  1.41327943484774176675
                  0.56465470338659184968
                  1.34147536144649182077
                  3.99936611655394491649
                -18.99055458181571864884
                 19.52337735845697963555
                 11.26621647944470083758
                 10.00985472856002722608
                -10.14149274673969536309
                -11.64976858527641034868
                  0.88877665335423139403
                 14.10153967776072647666
                 -7.63983788345804182285
                 -0.45491352692450032214
                  7.00771077102862527397
                 10.42751334807154783846
                 14.76747836349593789862
                 -0.93672949199868593695
                 -5.06629236506814439878
                -18.76183657437282192859
                 -9.49169915654638174374
                 -3.71635332508078430891
                  1.20588155970899846281
                -14.84932063516486344668
                -11.16396896014556183729
                 -1.90706667735467938485
                  2.81640509056940580024
                 -4.46236455503469642281
                  1.95444387096933080983
                 -8.61039142237614463227
                  0.14231504064328684422
                 -4.85697260509194972400
                -11.72838586449472053630
                -10.11434426388524165930
                 -6.11209168130987468004
                 15.15375400723776522227
                 -2.94114799375137403459
                  0.60131605924145792308
                  1.17978312529850914991
                 11.38159399603664567735
                  0.23447917508961133026
                 -0.19082149092413952518
                  0.09818261509836025136
                  0.14704667151704162165
                  0.00803225986867985887
                  0.01179232152995180263
                 -0.17606162951130063798
                 -0.04504609774817346091
                 -0.12157519977028595493
                  0.11217703271571942414
                 -0.02562889858731610612
                 -0.10049404717078284921
                 -0.01953251154416608612
                  0.07468376166300688679
                 -0.02175836983976634290
                  0.05040822485040596934
                  0.00641403924219656127
                 -0.08835792563439195946
                 -0.01082526856295872725
                 -0.09107499907010752072
                 -0.02953221760109957239
                  0.06583271320913247626
                 -0.01227675928379107217
                 -0.03346775475047682885
                 -0.00585377160319542657
                  0.02182408019859092413
                 -0.10115699387002041743
                 -0.09465140028390137128
                  0.14502952274435867985
                  0.09420593173928523689
                 -0.05630863747288821636
                 -0.06587965634935842585
                 -0.00597059935576355148
                 -0.09230561337855096304
                  0.09339056808979256941
                 -0.05256695788001022884
                 -0.09879683009383237458
                 -0.03551668470311156872
                 -0.00621628484110769205
                 -0.01498053965777013628
                 -0.06653995315982945413
                  0.12098761734502889997
                 -0.04510315653684910525
                  0.00533502520041268923
                 -0.12423997685594824480
                 -0.05330215824084572757
                  0.03578821703797845089
                  0.06280582322193212219
                  0.02636993409434401983
                 -0.11950559827217446807
                  0.01790221960207883517
                  0.07586850657228849659
                 -0.02219996398926619638
                 -0.05474392109153453090
                  0.04029901984670927750
                  0.04584831098883995065
                  0.03839132008640992744
                  0.00024840277799745812
                 -0.00165680971494400349
                 -0.00870212079264928717
                  0.13593643798533239231
                 -0.06472874431278594076
                  0.14449520330889034647
                 -0.01912020297467006968
                 -0.06450839035963149004
                 -0.02433968744998845843
                  0.07630232950472008724
                 -0.03012899287946171206
                 -0.06420326248356428289
                  0.10478156682110434383
                 -0.06664924832493890339
                 -0.05160057984817871535
                 -0.06478724205001915037
                 -0.00901516680706263007
                 -0.01111872855518139872
                 -0.03853417541438661220
                 -0.07341716859287798769
                  0.18213071140224518230
                  0.10020901624693175080
                  0.07554742226939209493
                 -0.02642408025507189326
                  0.30741119109975478807
                  9.49871917391075548665
                 10.84974056116530327643
                 11.64528383761493302018
                 -8.74481556765450029900
                 -1.49262536603889373055
                 17.50199696684994776774
                -23.60425879330710685622
                 -6.19853966029365732737
                 -0.91433861976619235090
                 -3.90550991319841456217
                -31.44904057912713923884
                 12.15474173374293975769
                  4.28689818894866192522
                -19.91415146600077434869
                  7.97628523368104946911
                  0.71129675514450807494
                -31.14367016383276620672
                 10.02388763797626403118
                 32.47394442776770517867
                 -3.37257591375725951366
                  2.11069485904970610690
                 -3.64309115987233189671
                 -1.30645521797758323856
                 -3.00169168465435065585
                 -3.47741183175753310053
                -24.14654382814462607598
                  0.18120328327837859073
                 -7.33285370870298525148
                  0.15573106075811521398
                -42.22472670208144052140
                 15.79924452713157734252
                 13.85323431210804834279
                 -9.15157532011246743764
                 13.11029616038645428944
                  1.22184902081347090963
                 -5.10446479045466361413
                -11.43479294157202375004
                  4.45669013355461096637
                -15.93978625971768003922
                  0.03363823990145550780
                  0.33480034397078356490
                -12.13845561506328429857
                  2.94546748324128104812
                 22.22279908190164121606
                 10.79489784509218353037
                 26.30547944315836161877
                 11.62102383783995307454
                 29.70285000560934918212
                 -7.90021491703334177714
                 -1.93253505748978193779
                  5.32315253079455352747
                  4.38013122339469873623
                  8.30684365108325195592
                 13.30516548885857730511
                 14.98845014095029704038
                 -6.80141750681769963194
                 -1.17761726596847626780
                  2.05671902741895040734
                  1.18210377301384528259
                  0.51246540666244877471
                 -0.64529033758448728353
                  4.63896524150955436028
                 -8.21072285918365984969
                -17.20264160175184642299
                 -3.61455264752200244871
                 -4.03846574993756846084
                  3.60735962582928104680
                 -0.34822035971853049219
                 11.24305009086431361709
                  4.24655774779622419146
                -12.84722301057562177107
                -12.97463268486018783676
                 -8.34931539574371228696
                 -5.21945856625340720569
                  6.95644317972448167353
                 -1.30980984489527307879
                -14.84719612456162352032
                 11.91817341609340452635
                 -8.14927663325006790274
                 -1.59909299594482501305
                 15.98846354476262021649
                  9.60897634032567182771
                 -3.08084981531740975669
                  0.74779375268249059783
                  0.25703388195025583807
                 -1.23730442775160742741
                  1.23625992505502035890
                 -1.80836458082747197906
                  0.61433122178370147548
                  1.07281756376949921616
                 -0.84163292344155271607
                  0.17873319959584293981
                 -0.27438533176686918935
                  0.25279028542089387877
                  2.51442592545491683254
                 -0.07336043696570929140
                  0.55855343155533876409
                 -1.92274855324160132142
                  0.52718971746164655645
                  1.42973507729781390552
                 -4.79129941277337145777
                 -0.86847518009809288042
                  3.39683489462788967828
                  1.42060822134129360883
                  0.05175742415216016273
                  1.67828734528954859329
                 -0.32385823849920242212
                  0.45941535770665142824
                  0.28922596450762838582
                 -0.72189438829820129495
                 -2.11717678094072514483
                  0.57684233139485374675
                  4.44304167789807014088
                 -2.83822006881433752667
                 -0.14600510504424310532
                  6.81500737445799398273
                  0.33119448600570949859
                 -4.86830593403732692082
                -12.17939964616211767634
                  4.80914337123302093602
                 -2.93734872581084571763
                  7.35576393051391974609
                 -3.83372006901497597298
                  1.61909359355147808301
                 -3.46614177653215937980
                  3.95964950065872356433
                 -1.80453733457810194807
                 -2.48006703712095211145
                 11.80752720673522837558
                -13.65206247092417690681
                 -8.43957551948187756352
                 -0.40264474006575656784
                  2.25174270040911750357
                  1.85079980410756972375
                  4.98819548188414874090
                 -4.82864269981713434277
                 11.47251239553281720873
                 -3.48466195800932965199
                 -0.16680778931859333025
                  1.32565753469507674467
                 -2.58535689733975315718
                 -3.37247905819505611191
                 -1.80766472318248783147
                  3.53476232188463335149
                 -1.01762130371217685010
                 -0.14779178486152758087
                 -0.25676878147933090979
                  2.57321888257211117690
                 -0.45318263004997189070
                  1.33366932112004099586
                 -4.53724475044121700051
                  8.10387620980431755413
                  0.23980588743527964102
                  2.25641812399760910424
                 -2.39619600452716507988
                 -1.19319010131596248137
                 -6.13954341110961365757
                  2.78976418301421258406
                  1.68295534592433626564
                 -3.46751655142046821823
                  5.00600411780235443615
                  0.24171934063902147938
                 -0.46452338159960598896
                  3.32135157753767495947
                 -4.76612016768953594692
                 -0.92772449931446687721
                 -9.26819889388808348940
                 -9.73065133305697393951
                 -3.16639991906242324049
                  5.46522757883781906685
                  9.71873268546800517242
                 22.93318290782827517660
                -13.03285831164518526748
                  1.54820708439860266203
                 28.03015840693076654588
                 -4.92887248570312941354
                 -4.48220290631673368154
                 -6.34641118121450631406
                  3.27637419604389146244
                 -5.37590885682815144975
                 23.09749498022947022946
                  4.14402017700628899632
                  9.66796768838577946781
                  5.77120200919937609285
                  9.69858380597680280744
                 -9.29556193235151440035
                 -1.71784501942431777621
                  2.27693366471814195862
                -15.71801005327664846334
                -14.24355591591912428839
                  0.65505877737496720492
                -19.73373399892321344851
                  3.45418345537963666914
                 10.85188943677424155965
                 27.84280383499506683620
                  5.61217650150583313717
                 -1.88136272793829428807
                 17.54152934463201773951
                 -4.16314364014540583270
                -29.38585950273630231777
                 18.81814236738917145431
                 37.08415801938931366522
                -20.68187598661967641078
                -32.49402292374126233199
                -28.99787798349556311450
                 28.46375822563609503391
                 -5.58311981114241007162
                 37.38631449991451205506
                -59.50274341273229339322
                 11.18692231583544405282
                -27.51590413141114410678
                -12.81415292008386686007
                -26.22935955341742086944
                -33.49144997464825479483
                 17.88198328058695096843
                 14.97641565646271821777
                 34.66953901239617863439
                 13.74747784578082310247
                 52.38499990516593385337
                -27.62325336834876310377
                -53.78614599087776326769
                 44.69184980881298940858
                -37.45185650997565574016
                -36.71518701952446406267
                -12.96084624476353397426
                -23.95271893318995992672
                 48.10386765676783937806
                 -4.78031952446103325371
                -18.02752078742283359247
                  6.34599472801113329012
                 39.17972386040064236568
                -45.15591702242083727015
                 -9.11320623146411357141
                  1.10662322979984306670
                  1.06882766381586424842
                 28.63370380080758792474
                -19.48064644930249045274
                 11.03481845135902439381
                 30.53782922674672661856
                 -8.55148231828555793754
                  7.29383545937370225687
                 18.74223961031613683303
                -32.92714220695300753050
                 41.54570174493837697582
                 -0.77413334276049705629
                 -3.33958672188759697619
                  0.80729677972323543589
                 -1.83069368262806175807
                -12.14511378579582867587
                  9.00811953008749810579
                 -0.81772017768764082568
                  3.24397742246066256300
                 -2.21720614379092406665
                 -4.99046118973271646269
                  6.35259255630984398522
                 -5.54134434968239197872
                  4.83743438855796537013
                  4.11173335391509287007
                  4.01102309831342651592
                -13.08770210541742251564
                  7.50066163997790269491
                 -6.12849779315904807930
                  5.10003391085434287788
                  1.21968342212591429607
                  4.67982226167104897741
                 -3.43891100704073338079
                 18.49262679698714606502
                  7.84750984888402935979
                  5.94800753291522177335
                 -7.61272984274608965904
                 -7.86854984484000130607
                 -9.66110095661965395664
                 -5.82881117051788955052
                 -4.54372159089911153984
                  5.67687991779712231022
                -18.88090968986249862382
                 50.49726033861294638427
                 57.79951092370910004092
               -198.94510617200666047211
                  8.26263895033071804619
                250.21644031013116205031
                -35.51800128610010176544
                -36.30419125304756988726
                 33.13732601694110257995
                -38.15518845801883429658
                -11.05982437038559496045
                -36.82262116192114831392
                 14.32984523954348254904
                 12.79245971465629949648
                 25.40130746757269619707
                 18.38167367293544529616
                  9.69892947846489050789
                -14.60968126416372570020
                -15.23872100291649722692
                -22.23965199933434888635
                 -4.73324185270887909383
                 14.74588569682536487448
                 27.52911113136513776567
                -39.88025475505718731029
                -56.52205947722495693597
                 26.72248091033389272297
                -25.62615389481246452874
                -62.50674922210342288054
                 36.51081830824976037775
                  1.72870754043363028529
                -15.19913354770160118790
                 42.31548778474083150059
                -81.89583653513118122191
                 -1.40650939134242003448
                 -8.34310834401748913081
                -13.79905383057883128117
                  0.00240717478426529657
                 23.90720240531995699484
                 -3.63556512932496644908
                  3.46821263876768481893
                 22.72549490200384170180
                  3.79336169421703139903
                  0.08770765436316231567
                 -3.09400711681654438934
                 -3.75179838561281187026
                 65.28268615718384637603
                  9.76816372939396337927
                -19.32489961066823269675
                  8.87322258005649011636
                 -9.55964946380719737817
                  1.07129874851137629754
                  1.79387793850931753781
                  2.18351062310753896156
                 -0.05287757503072515464
                 -0.33119619874119976544
                  0.08059137321538206722
                 -0.12197222730045913230
                 -0.11204158429789858042
                 -0.00108096200529166357
                 -0.16035223928715028330
                 -0.02881866768381039640
                 -0.20620371560606778893
                 -0.00359718547060475539
                 -0.19795179750389718665
                 -0.17657627067178799374
                 -0.02012208633014072462
                  0.04612100842696363612
                 -0.06646669593769671813
                  0.03227397682328336792
                 -0.08272957383183919544
                  0.01488374246841184766
                  0.03926560920077357131
                  0.00957172829020466395
                 -0.03350456876541708234
                  0.01129520697097628930
                 -0.02586292855208358749
                  0.01318452023594012153
                 -0.04141651577594990252
                  0.02302329005751394680
                 -0.08442409212637794202
                 -0.03512272539666469462
                  0.00265879847678730146
                  0.07137191791293080734
                 -0.14396942316844232868
                 -0.01684616297242158903
                  0.04151078117140559465
                 -0.11442926159001387543
                  0.00573860525832339471
                 -0.07322715549022092152
                  0.05198932687244006701
                  0.01038779210605977887
                  0.09716480528163001784
                 -0.03814029044645505379
                  0.12180512386379445389
                 -0.00070507021666664938
                  0.03350313212243031386
                  0.03894384085737091772
                  0.10893121732348751141
                  0.19434612345786436705
                 -0.00308905969162581251
                  0.02906108684717051069
                  0.01353711900198210048
                 -0.04325976135510767318
                  0.05793496262209908709
                 -0.01889457021022509717
                  0.04389508720937419090
                  0.00519828230022447053
                 -0.01894542021357812495
                  0.07860233611399572440
                  0.08735965260240328989
                 -0.00326467635694408301
                  0.03458767923820078860
                  0.04315112284249913999
                  0.02589841446266034908
                  0.00842666928065953502
                  0.04054212574516997264
                  0.01339959796066371618
                  0.05129691520127682702
                  0.03756825611398362935
                 -0.02327851383505143493
                  0.02874038203305904690
                 -0.04811414099017961160
                  0.08281565028689698293
                 -0.02761889711134313252
                  0.00156875635789301550
                  0.01632857161121393369
                 -0.06322019653059647581
                  0.05651982884272636204
                  0.04495856572963673886
                 -0.03934087134513884060
                  0.02832020957538177244
                  0.11322431639995235442
                  0.02303861380814959184
                  0.01190365021542007934
                  0.10626057408239625302
                 -2.02852643904471552361
                 -1.69359907227445072309
                  1.62906573645379659787
                  0.42287895816839571328
                  0.46148066470472415279
                 -3.00409174654804767002
                  0.25726954393892625950
                 -0.04043963057729790117
                  3.07112033964271402553
                 -0.55308228358499267330
                  6.17529438397565311192
                  2.11456825969298645163
                  0.12292316214930837370
                  1.80147837954690159812
                 -1.82038047549236781109
                  1.54034418714970366970
                  1.13451411685101466453
                 -1.06788052026251856219
                  1.25042177481468819167
                 -0.44139636762074657694
                  0.21958261135524320684
                 -4.07957762887138120078
                 -0.39788061144161601668
                  2.11109826379790810336
                  1.22049889636845310115
                 -3.61686206273488330964
                  0.18792033769187219128
                 -0.59074183836593541219
                 -1.16269512725982471224
                  0.10528836617187480040
                  5.23260197092240275651
                  0.13966248066013392526
                 -1.24874137231065884812
                  3.13199077741663511887
                  0.17596225147110680642
                  0.68130149960366437334
                 -5.16711423188872398526
                  1.16813056270483639487
                 -3.88784106529966688726
                 -0.21958503336904508507
                 -0.66980129387390530127
                 -2.81591772955959296354
                  0.92444985391329614899
                  4.89784517417094011904
                  0.50020118396586488174
                 -1.36941169294412490309
                 -2.49368105661585648392
                  0.54500610087857725983
                 -3.83716725394701763108
                 -1.59651176030730446165
                 -3.39268508247083788731
                  1.04704371630677872673
                 -2.95612419511113877491
                 -3.24412442039835768881
                 -1.78536197438326538212
                  1.64451118507693117010
                 -0.49954174483587260314
                 -0.19004053302293896777
                  0.54811937501648699822
                 -1.28534589964682233187
                 -0.78349687275696222599
                 -0.99621683526673354692
                  3.15868236305269034503
                  1.38131400176933039070
                 -1.00658221949787951566
                  0.57585192837466403493
                  3.15481854650991788702
                  0.02457043445149730693
                  2.08690531069499485284
                 -0.10883560835777120190
                  0.44384720510743808086
                  1.83643140007644922740
                  3.61023248806209418049
                 -0.51354015654934748181
                  1.31805752497465622497
                  0.52010629310091449629
                 -2.04664789690379533837
                 -0.05778501605867732843
                  1.69260099712876543876
                 -0.47607915055352911793
                 -0.97738219511783508420
                 -1.03275937989739530209
                 -1.57287583145219933556
                  6.13308266778351995896
                  6.63879600287712445805
                  3.59983315545416093784
                  1.04385880194804792076
                 -4.25960309320251884202
                 -9.26832335240630378337
                  9.65433633248108691305
                  6.16196890131781671585
                 -1.02331331741649411704
                  3.94093319893446558666
                -22.78721809299581479991
                  1.92046374227972638238
                 -2.31474151037492603677
                  0.45103266977036893248
                 -3.04653294852720968322
                 13.80249814203028968507
                 -2.63242907972971051933
                 -2.26348823153523026619
                 -9.03582175439949075724
                -13.44795598340758147060
                  9.35538711294840652499
                 10.60493224106136445073
                -23.12167767569953724660
                 -6.57982152547512200158
                  7.72232257339546901420
                  5.01701840111220587204
                 -1.18746089957248823765
                  1.44373409833283750103
                 16.72218852148406398328
                -20.59081182150789146590
                -28.90355619443134926883
                 -5.71376462596303191788
                 -7.01681284399723637080
                 -2.09184020748795740374
                  9.53880295055597038356
                 13.48417396721407257587
                 -0.95657130898983333545
                -13.25584424645018799538
                 10.20566992905914815992
                -21.58013667313532124581
                 26.81843040831149238556
                  1.34264059166774885057
                 15.57136009996573378089
                -18.11299828619074858693
                 -3.63316071318541533586
                 -3.42620013203111817290
                 -3.22933267436925452998
                 15.62540881240014023490
                 20.96836681933586987725
                 26.99951572589444026562
                 -7.56004383135632629376
                 24.01478719429896102611
                  4.26048582098627015569
                -15.99194939821473759878
                -20.00343574128240931032
                  6.50503385839136161195
                 10.21167990799759905940
                -11.76600098297687324589
                 21.08433624524664651290
                 -4.15285677155019339324
                 -7.22515228657134844781
                 15.89821634228141533640
                -10.21243708961357299358
                 -5.69193377261976785064
                  5.46611544265798166009
                 19.87594123264071299673
                 -2.54988126067448872547
                 -1.04212562244855910798
                 -7.27102578452553682808
                 11.35217062179983571468
                -19.00773803812116113932
                -23.02384485371787903318
                 26.63544575091016142210
                -16.91517342222876507662
                 -5.12192540799325612966
                  4.42733111740672580225
                  1.92776643357709920323
                 -5.43089271473407375623
                  3.43282326100052381790
                  3.25369244773830423867
                 -8.97111684284408106294
                  0.08717127338895654109
                 -0.10798319928011403113
                  0.08388557813603415847
                  0.02658147042811039376
                  0.04026875853715233822
                  0.01940931394674200519
                 -0.06760305972404712094
                  0.00381367683570082517
                 -0.11343299852550461915
                  0.03208174903848320936
                 -0.05845545285295536408
                 -0.09948669122020611932
                 -0.00163681730339696125
                  0.04991505115741513843
                  0.00109606817936850503
                  0.01645307281905101365
                  0.00955912171499314310
                  0.00160339817684263734
                 -0.00299692212533930660
                 -0.02877957567944464806
                 -0.02836699481838224346
                  0.03375188914534357765
                 -0.01306106979621622297
                  0.01070174863331093372
                  0.01853511907531256095
                  0.01534575636391141522
                 -0.07308609079855901691
                 -0.05313140665830839299
                  0.07713737854246577319
                  0.02787732737904811617
                 -0.03542695161175477003
                  0.00474169207134247234
                  0.04173497991608617758
                 -0.07805282660434173514
                  0.00502701034968680485
                 -0.04126969671590993705
                  0.00955954451576314715
                 -0.03304328401862724474
                  0.03448849724935090788
                 -0.04731872169907073294
                  0.04954007119515990015
                  0.00019308929225027096
                 -0.00965701069166868646
                 -0.04923338386108024045
                  0.00614153192862695613
                 -0.03089461410590217325
                  0.01399117489181844060
                  0.07655958267199249045
                  0.02280891269937518687
                 -0.03641670969160144822
                 -0.02670817949920252857
                 -0.07090874885753908896
                  0.05435800570190763709
                  0.06612576205156253661
                 -0.00679212121141754312
                  0.02719979215842780254
                  0.02674029671284877327
                 -0.05112801751935352329
                  0.03857015095071520544
                 -0.02058115443939204092
                  0.03427024377284883933
                  0.04202638567112914475
                 -0.01406747999444134777
                  0.01745338929618328941
                 -0.01545263629849615711
                 -0.01209971842860275461
                 -0.02823692962688494415
                 -0.04691170292640586131
                  0.00558219991106944421
                  0.05026853227975726368
                 -0.04619339698665693439
                 -0.02019759604111401666
                 -0.00870148083864723774
                 -0.06094395185689294864
                 -0.00994275044303766231
                  0.02807239519723504773
                 -0.06927387200878881712
                  0.04836403780307715200
                  0.10183849279721556014
                  0.01243247337367369039
                 -0.01618411693177502705
                  0.24481753563090255521
                 -3.06187400636971140955
                 -0.62397669005909295326
                 -2.00739037130053210589
                  6.61655003295270560670
                  0.45643770823759033384
                  1.56344868247345081258
                 -6.14683128483168417233
                 -4.75286839073269185008
                  3.92861223674226511804
                  7.11367089654926409992
                 -5.05077465834579353299
                 -6.38010482111618504319
                 -3.92160034083283282058
                  3.57617827774808372254
                  5.85862311086552978168
                 -2.00400463274199358565
                  0.86167938207872685208
                 -6.23869839120039504365
                  9.68656988752689684929
                 -7.35992722656471354270
                 18.57707968275201437791
                  9.98131757574547684442
                -14.37530710745452466881
                  5.42779474337328426969
                  2.19780901358641367338
                 -0.92972691412509711473
                 -0.29633731842182242655
                 -4.76134757293750610074
                 -6.62927050411257567930
                -20.84416696097204280136
                 10.30945616084894922437
                  6.50151449881727661051
                  5.71293618354541266058
                 -3.01610617213774423462
                 -9.37494888523222869026
                 -9.98260984489529334951
                 -2.74509610248854807324
                  7.29520852367110794745
                  5.81364436706784193376
                 -4.88933015196169495908
                 -7.40744691729684667791
                -14.31345176364704130378
                 -6.81417918153597135245
                 14.41723593320877583324
                  2.78665868623827606143
                 19.51875137957786421339
                 32.20619377222240586889
                  0.48077017985083386753
                  5.19866991841468450986
                 11.70371940953437217559
                 -7.99223579932986183394
                  5.09686208582679434187
                 18.12549245265293862417
                -13.84489154788207088131
                 -4.77801793468564639511
                 10.25747552593472988747
                -22.01172613451312187749
                  3.81538434874118426166
                  4.44212807853942948100
                 -2.11013849691283095211
                -13.03872853883380145135
                 -6.05651047033902845129
                 -1.74784231442959536729
                 -3.42640090899958371651
                 -3.29611763123493073380
                 -6.42628487516435242810
                 -6.89063941365384113880
                  5.18770086339312541668
                 -5.81814387696558821261
                -29.01577366812920644179
                 -6.62135548012886676617
                  4.56494112909386196009
                  2.57130744848273318226
                 -6.56897979659071040714
                 21.85549711409241524507
                  8.28397505715565785067
                 -3.68625759397859509292
                  7.04164230358616993755
                  1.52216549874772599793
                 -2.42422729391770408469
                  3.38844849901604039388
                  4.82591910930856471396
                  0.30737159683977016700
                  0.12570992623257329357
                  0.62479852627303689161
                 -0.00416362826347889143
                  0.02487523435593726531
                  0.11350844779258836836
                 -0.06535775998787396457
                  0.04271235165650798943
                 -0.08745234701588094905
                  0.18556289472420151032
                 -0.31691287852356886390
                 -0.41342807139352644175
                  0.11654228591653495450
                  0.29689987035472864552
                 -0.19062718273458786888
                 -0.10420865756045706585
                 -0.22945463686462513886
                  0.05325713866235248783
                  0.02071178400468528386
                  0.02793344832626345683
                 -0.01874840402218873325
                  0.06385853170787257616
                 -0.16095729040414979982
                 -0.05430760155933937738
                 -0.01517273440496180910
                 -0.40024689526066981049
                 -0.22348706541870444475
                  0.36253992499641934932
                  0.05436571144208265233
                  0.29518683470598006124
                 -0.49452500081841888058
                  0.05003803607942044346
                  0.18508853127407332018
                 -0.63639703136656244897
                 -0.03518016231273266015
                 -0.53872915031046397782
                  0.21270343973089259060
                 -0.13358420243199367605
                  0.37654786714590354757
                 -0.46913227683320368744
                  0.50606997512666807015
                 -0.07644704548088539220
                 -0.21031670579354225237
                 -0.01823540608081404557
                  0.30612751374682101169
                  0.48681920834743003246
                 -0.16197731185629793416
                  0.62130467908820208311
                  0.24893922155797207352
                 -0.01565707488720994439
                  0.31473835070414446502
                 -0.43281504730064357389
                 -0.05943290601735044809
                 -0.06809238678068023354
                 -0.38865589138020706361
                  0.20479886706172992228
                  0.08883612362188861300
                 -0.23296117440582958524
                 -0.32601538427440762691
                  0.20101294779780637390
                  0.17952209422860385124
                 -0.29991509123655801794
                 -0.01460716019369010660
                 -0.12570872275611677527
                 -0.02896777742805836317
                 -0.12421663774295696459
                 -0.57357753292783975052
                  0.02652403413930893433
                 -0.04800629258535142607
                  0.52245774681044476750
                 -0.46252640808546402473
                  0.28421791686249747722
                  0.09946572779577890489
                 -0.35156788432098612374
                 -0.21494348796763473874
                 -0.41077025111716619632
                 -0.50156477803831445161
                  0.25443666583505919476
                  0.37844283203303874519
                 -0.03568589185609103570
                  0.34907169133587989673
                  1.11289372537216824099
                  1.13998536470535949405
                 -1.60978956659340277646
                -17.42831341900719976934
                 13.95743776057523533041
                  3.28088539428110825824
                 -1.87176907220572918966
                  2.78235584299851002044
                 -2.18105009041554387395
                  1.44342682544004263789
                  2.92256617436156362899
                 -4.54231199912105054750
                 -4.45869272629803958807
                  6.62130777514582291587
                  6.00730034927256095756
                  1.54493855708467653365
                 -8.57261459969889649813
                  7.52468630822620010434
                  5.39274851443563640885
                  9.28236411754696533194
                  2.72674807174866984383
                 13.71943081673938813481
                -21.28636211578823278501
                  5.53639211463351532672
                 -2.66346242520490594785
                 -0.09713266586699190186
                -11.62343725431651186852
                  2.95441772911371902666
                  0.96855615497840941153
                 -3.48769758426026710296
                  1.58042888517149693328
                 -9.60728702563155323446
                 -4.39957317467827557778
                  0.07441122329978004657
                 -6.54484910075116133044
                  0.42731857314354404487
                 -3.23307030945177942272
                  8.87556982472923827743
                 -0.79328298375268935239
                 -1.17109431333447711054
                -10.76862749963427390298
                  4.03909445728448979196
                -10.85955830349195316842
                 -2.12715499158592402651
                 -7.62511864044591636258
                 -2.38210078046315887335
                 -8.24226501634054109502
                  6.96589471993368203329
                 -1.00530003317661575934
                  8.49106073685563522702
                  1.22571414726068339540
                 19.27147881872515711166
                -10.17108304714145283754
                  5.92779734977981132005
                 10.68998448663671041459
                 -2.79398406170471824694
                  2.49130572704359476433
                  4.26020875025188239249
                  1.22397124457352335369
                 18.28341921315624674094
                 -0.66179755383161287252
                  3.94079530702853864099
                  5.50087564543548257490
                 -6.76394633899172958991
                 -0.59553390598861766225
                 -2.12183502373234933458
                 -0.92982616318704702785
                 -0.75244091563793102928
                 -6.28667441666431514591
                 -6.05644215838484711867
                 10.97518754642312899250
                  1.64326258974824535031
                -17.97995141345719716242
                -16.60899390351995563719
                 -3.79228440790898124746
                  1.50669602435644267580
                  0.00506490268789878701
                  2.70968745733540128384
                  1.56368841217828768997
                 -0.30764165330939646781
                  4.05483162956884601869
                  9.14086796092449205275
                 -0.66321347191453916547
                  3.35802965966822064559
                 -4.42132139035425630880
                  6.76038640989477279675
                 -7.72217177365156981494
                -12.26996938642806611597
                  5.31656835520237347481
                 10.44243708662752823102
                  1.74236502198546738818
                -13.75400063320541477196
                 -6.07648646458436481055
                  4.89856375237350771812
                  4.13494810598501327803
                  6.63419679907751103087
                  0.28231185303933936659
                 -3.09291445063546754923
                  5.86862878913360574984
                  3.36948746951770017333
                  4.47047380371373748176
                  2.05505315767558549567
                  9.39950810606943676362
                -12.43565727229661455056
                 -0.38284027215226112961
                  0.45311036949092736714
                  0.26975004940944158349
                -20.30993649908589659958
                 11.62523142732100289720
                  0.36648909317137812192
                 -1.16310766855410574472
                  4.83478809338459036837
                  5.02278194156654400615
                 -9.12155034867171643498
                  2.75337350011988668541
                 -7.84667203460208639854
                 -3.44431636950844843881
                  2.62796711303345986721
                 -0.00693983739055180782
                 -6.72131532750390459086
                  0.25861945291503152244
                 -1.25264206672445665980
                  8.43661643286952411813
                 -3.95008501285821278515
                  7.21500908039113753034
                 -6.46106535901384049225
                 12.17147492885965043286
                 -9.96531527175007525443
                 -7.34562325561363760329
                 -7.62206414028322054577
                  8.52982590652126759778
                  1.21435203939704416953
                  6.66237024035933167454
                  6.34997218821744269235
                  5.96170105093769286952
                 -3.46902275806941640113
                 -4.95991289721018802084
                  6.87821594833795391111
                 -4.54019382725173237247
                 -5.41674129866298592617
                  7.48531486803287648968
                 -8.91998688370600589792
                 -2.05951258229807976363
                  5.13037165248286441965
                 -0.90298851693201509505
                 -0.32405949186574345422
                -11.11090548730606464289
                  5.82115310495229110188
                  3.31594233096719070986
                 -6.73175864184943861801
                 -4.58174623256965318774
                  1.93689345638346543943
                 -6.39171637596605624054
                  5.37902542467816324745
                 -1.10356556165035324391
                 -0.62747652740664405790
                  5.13855921588304198622
                 -0.28241985935946861686
                  3.28616119570733777877
                  5.62119421890989823254
                 10.42669441208964897783
                 -2.91701571926316338690
                 -2.35893024496444647653
                 -3.16666658483062724017
                 -0.31864602490683074931
                  3.39501354141599698266
                 -2.15231566464408841099
                  8.31441857964529695835
                 -2.91648202118459032306
                  3.21629979026442258672
                 -1.71132392963803336983
                 -1.11161738507462248826
                 -2.21176823094098562450
                  1.66174852359735480967
                  1.41918862024017067291
                 -9.57614621473378591077
                  2.54980244944404210727
                  3.52076650812712754757
                  1.56162718160969538062
                 -1.89766896272463081452
                 -5.50145351737105769985
                 -9.24729931610241173701
                  1.46172859178456482354
                 -0.27334142068001587855
                  1.13090429523477964402
                -10.10523966238033288789
                 -5.79799886627759430979
                  3.69619237499649688772
                 -3.80586275417743813421
                  8.16834402001044956876
                 -3.74622160859027442115
                 -1.77828624308686089606
                  8.42552843688507557829
                  7.21852576367176812511
                  3.86693605390225503271
                 -3.50457174910353908004
                 -3.83704382733343729583
                 -4.84151294153066302783
                  0.19185718856521286058
                  2.87351232715003623852
                  7.64297719199449954175
                  1.31754995297136834331
                 -3.92097304208736385789
                 -6.24762609063018992117
                 13.88477816899729155864
                 -1.14229108704962190046
                  9.29665014578400317191
                  3.56077271391555427726
                 -0.82080803570789395707
                  6.35105518014623271483
                  5.73732075961699106159
                  7.41812947317219339993
                 -9.17452108019157996921
                  2.87978229107137462250
                  3.32754879561248495534
                  7.50785509784900284558
                  3.85643102076535626566
                  1.12368847536405502829
                 -5.51501488868470168825
                  2.52811597168135060443
                 -2.55693184259197758834
                 -6.13685060212585842265
                  6.55152625800373744624
                  3.69337235746673497871
                  5.97005762263684491842
                 -5.46714731082065164003
                 -6.16186282253042438839
                 -1.56998099674386115687
                -11.53837168926691880699
                  1.13536456966355769893
                 -2.84774663521286974799
                  1.85004619470067166453
                  1.53640379782207614490
                 -6.10748068016044420858
                 -4.23678334588719263110
                 10.38335882666151377407
                  5.45844426560304185614
                -13.05682979378276975524
                  0.52467252630969718474
                  2.25476426130854568086
                 -1.45730636897250120931
                 -9.83700428588712583178
                  5.88556161927497178965
                 -5.70764446712179207566
                 -3.11252463350201624692
                 -2.20852725670677951797
                  0.32637041594119081678
                 -0.08061439778118381638
                 -0.36648222309230071847
                 -0.08788717677423411867
                  0.00401643265501427319
                  0.06616762906362815000
                 -0.12596008001445671565
                 -0.22159097359377616376
                 -0.01530330678003874977
                 -0.06856670413325534341
                 -0.23862076089634329246
                  0.42631152478992534460
                  0.53545441652445546765
                 -0.11890411605993679578
                  0.12056910084397351457
                  0.10959050767623926270
                 -0.13300575792080013282
                  0.25246247707613367339
                 -0.03634512778988069348
                 -0.15164638910917399572
                 -0.13851656772083395519
                  0.09694131314980594660
                 -0.28555794482438728865
                 -0.04895865803336905270
                  0.01186286302828080258
                  0.10057640355421658407
                  0.06715908172217416316
                  0.03248458146224803694
                  0.14022544680968063169
                 -0.07499726048475882645
                 -0.28867457081569686261
                  0.33176270253353018491
                 -0.00575474207468368044
                 -0.11702685441749090256
                  0.29751915653752508684
                 -0.09137257969753614928
                  0.15855411030456403876
                  0.07022778671323302857
                  0.06655286038001034798
                  0.02260652828661334837
                  0.11693270320035613341
                 -0.11932571465694477575
                  0.12365772738056272917
                 -0.01948353964355598045
                  0.06198101540562657441
                  0.07815357792570565287
                 -0.08697636711523726305
                 -0.10298524545328398283
                 -0.34688238413286009987
                 -0.12767558834444267535
                  0.02495828133981731201
                 -0.16927602337729302784
                  0.07161181668682052581
                 -0.18519066445239321106
                  0.11159243419014816534
                 -0.12295931469540499759
                 -0.24881099433877307270
                 -0.05972516099801371964
                  0.04126329137290295906
                  0.00498089067946618207
                 -0.28266852491379235168
                  0.08262062697154776147
                  0.01513514038581809627
                 -0.03060762608764568821
                  0.26043268645921074933
                 -0.01955213248523888364
                  0.13466753827997346438
                  0.05673790430967679682
                  0.13648684995772905615
                  0.03181850668827440609
                 -0.11020139199021361520
                  0.04067014793639581183
                  0.14509989788466409744
                 -0.02963417295829331999
                  0.18369819904821080292
                 -0.18925356468588017123
                 -0.01513655727447170592
                  0.19751216691490561250
                 -0.25756239554756854560
                  0.07213658769514504077
                  0.07110545789225025670
                  0.02181078943267990983
                 -0.03026509772277175339
                  0.34690941791381779691
                 -0.19354713026393619013
                  0.03866348491939806259
                 -0.06277607290054974809
                 -0.06781650491898157107
                 -0.11916523746794249750
                  0.12948343303386877778
                  0.05919259953437681215
                 -0.62876405462725404316
                  0.29646109233849343711
                 -0.82421617891389220567
                 -1.01524473145812188513
                  0.08784307352917659906
                 -0.14630609255698198701
                 -0.23460913661347834736
                 -0.02403248739973482678
                 -0.06581261823386902465
                  0.08420379700645974630
                 -0.10705972133639142518
                  0.60924924921372480835
                 -0.39757456478607072770
                  0.43061605541302089284
                  0.26802284108774326876
                 -0.08248960795223661546
                 -0.27816267790264814774
                 -0.39185552964644199125
                 -0.23400148009307511487
                 -0.06898286422250762828
                  0.12044149198286527302
                  0.45771531735577997146
                 -0.38592226563207965295
                 -0.27861877108873706055
                  0.20336117480041879246
                 -0.50063063779041760970
                  0.11578327235182316046
                 -0.36722310807591640458
                 -0.15923588673263774917
                 -0.04021525143709150929
                  0.15919288939768946878
                 -0.16846000826925952576
                  0.35999948011955584803
                 -0.20479847854023036646
                  0.04999687264165458833
                 -0.01616757402752455608
                  0.32790954144138034776
                  0.64513605716965338743
                  0.09288383610117714739
                  0.79863470182732954061
                 -0.04850213351751788554
                 -0.17541066699952645447
                  0.44710212521882924941
                 -0.26775546450321530134
                  0.30879888733345828289
                 -0.12808003661505523718
                  0.10797099231919997375
                  0.27384995175165938175
                  0.42655153615414675983
                  0.06414362191569426830
                  0.10455568837568264551
                 -0.00725066792154181652
                 -0.14550776837015258480
                 -0.08120971088904525848
                 -0.16822824251219403724
                 -0.09291553221085301073
                  0.02496508549811123773
                 -0.09086564130258499572
                 -0.19651769202309804507
                 -0.00963008917314916307
                 -0.12586184816134696196
                  0.49512595989190366641
                 -0.22606312536566983140
                  0.16036373635707623642
                  0.07733110104922685801
                 -0.12807459434908963214
                  0.14595179034389513251
                 -0.23061221124424732820
                 -0.12300592710341777536
                 -0.09967534229402527646
                  0.00722513677159869125
                  0.10026717352643950421
                 -0.03716179299503950123
                  0.50939475171685577592
                  0.06377964228280776082
                 -0.15024370117239857492
                  0.16333319884495642316
                 -0.16980085929242336173
                  0.01672944513620712448
                 -0.17803219448661966595
                  0.01446671120519525330
                  0.07979686273140974839
                 -0.31225517218264836616
                 -0.01467485352187200033
                 -0.17475397320705304827
                 -0.11538360882630140092
                 -0.08833001634721329709
                  0.08044863054795310664
                 -0.10740286050779401794
                 -0.06244559875305765589
                  0.11521480175866126439
                 -0.03076534964842846109
                 -0.18171343788403568342
                  0.21617041298047126596
                  0.06918089512168056066
                  0.06223506895018467849
                  0.04900328742448178260
                 -0.00399264433721476398
                 -0.09575591088291526831
                 -0.02573507925972404187
                 -0.06634135674832833396
                  0.02067271341441369661
                 -0.03030560506797185666
                  0.00006258299927938021
                 -0.01682591334481673556
                 -0.05270334331077558554
                 -0.01462936516388674106
                 -0.04065000622800939156
                  0.02267243545385779976
                 -0.05667847738451205208
                 -0.01891861813807254114
                 -0.00702484118468111023
                  0.02680752331989691775
                 -0.02907543024379207960
                 -0.02517115324817631450
                  0.03612793688917680102
                 -0.04227535259890964625
                  0.08772953378242680234
                 -0.05259600229554037970
                  0.28119142469382751859
                  0.04831500885193804745
                  0.03349018640389028745
                 -0.02085558711007542282
                  0.01542122092389868263
                  0.05570864920591511033
                  0.02663356485895747999
                  0.01550213767737238478
                 -0.01027645035600666806
                  0.03812925562819503150
                  0.05966303246275835720
                  0.00267787954982268411
                  0.02342973205982857784
                 -0.04875567529216680990
                 -0.03836525725288655181
                  0.04492250442712523301
                 -0.03651014070700364655
                  0.08919740859451444348
                 -0.00147598591005136627
                 -0.04623178049018830671
                  0.01841382322653125486
                 -0.04199588501083748038
                  0.05976740087634723614
                 -0.09137617350465765398
                  0.14472922824285436305
                 -0.05685655265176495915
                  0.05286148928131222113
                 -0.03391485998171618610
                  0.00757614306568280341
                 -0.01361957067946802276
                  0.07508212301067367089
                 -0.07862917750541315032
                  0.00046311270624995300
                  0.14178374084213202222
                  0.00067130380407689322
                 -0.04445438166102975291
                  0.27209680066592867309
                  1.08015208969034248732
                 -0.28306634009937770013
                  1.00519437993141225185
                 -0.04023330468829010298
                 -0.66349715189981262053
                  0.25290855061493261458
                 -0.08669443495483790396
                 -0.73363343222820431855
                 -1.04705686194850322579
                  0.35758874811926877335
                 -1.41775356201514957100
                 -0.99065827611278567399
                 -0.28526594744771982537
                  0.81993736225486690827
                 -0.56691595201396560721
                  0.22694548655588167585
                 -0.59712212970635192288
                  0.10176324845542546182
                  0.77575135902926528608
                  0.86214814773688186467
                 -0.74226121175160320043
                 -1.00801829048867253036
                 -0.80274220167890386612
                  0.20749985417642657914
                 -0.18925428555336165637
                 -0.65675146716238419486
                 -0.31011630962552649837
                  0.20096997054610757361
                 -0.33493022029738572787
                  0.79756310262200846850
                 -0.53351977701818598110
                 -0.18368112629294644500
                  0.03019951490563233670
                 -0.28984308456051061098
                 -0.04413126211867385296
                 -0.12405349923737316042
                  0.57605557351754554940
                 -0.21838048020507744296
                 -0.15158283143270964710
                 -0.49205018256412286215
                  0.88036088897925712793
                 -0.72173653140682780815
                  0.14708388053567220122
                  0.07202518296722966451
                  0.57677039618297898382
                  1.71293707304525510970
                 -0.81535585537275123702
                  1.49456063836654218235
                  0.53023843745724152932
                  0.44710120307713319132
                  0.02665819479734069311
                 -0.81030820965091676644
                  0.24834186633490473728
                 -0.42906224278490845414
                 -0.11311732214953908182
                  0.36442484104921213373
                  0.00529043749380184343
                  0.26210091331747087384
                  0.32349126924363891256
                  0.57857268178731990904
                 -0.31054071159118928902
                  0.10776723149885879260
                  0.12834514390262405370
                 -0.48368584758237848087
                  0.06637787099688799430
                 -0.33346775490624380733
                 -0.24830650814109736513
                 -0.10966358753162600004
                  0.25823671416994431471
                 -0.16279177293896202050
                  0.15314772411962790377
                 -0.16373024027501742461
                  0.88964768164364860237
                  0.16139350054916176691
                  0.43658106641844152129
                 -0.03613819210249234748
                 -0.91387058197708281870
                  0.69291394555443508452
                  0.32880053121128050009
                 -0.23533814051166002113
                  0.09943237851626038348
                  0.73292647095277807523
                 -4.17124064733600885546
                  0.34736156765470038721
                 -0.49388674281146321965
                 -0.09725495791739306728
                 -0.75397405100300274317
                  0.07760229007368335541
                  0.10973746134781897643
                 15.23663365055269558468
                 -0.05300839758225651260
                  0.27129823345306419702
                 -8.94025585043713988398
                  0.12962944358524494670
                  2.18959477986995398879
                 -0.09757541165371873271
                  1.11399284305295731556
                  0.75362533123849129169
                -14.19364260682029588168
                 -2.91342662334953406145
                 -9.08414835896758887657
                  1.08640740370821853311
                  2.03453225940936155425
                 -0.16503047084676586431
                -10.97397202359332979427
                  0.04172435932021865967
                 -0.24583087924547730729
                  0.12683722384569778852
                  0.10276427195727179387
                 -1.99944716910828113043
                 -0.25922949333793532389
                  0.07841647266070068956
                 19.41116518362648690754
                 -0.15906336890250988292
                 -0.23288041428132452704
                 -0.11038631812688258493
                  0.12519783271061871166
                  0.30648973800531381650
                  2.92920362432578063050
                 -0.59214999617183416980
                  4.43014304145962345416
                 -1.23727270631637797926
                 30.21209685279191958784
                  1.00433221529306115904
               -192.81887889194982221852
                 -3.13125874394866166028
                  7.42867265198559412198
                  9.82846403593853601421
                  0.73477917880191878641
               -157.59982343905062407430
                -11.37564277438284499055
                 -4.61325554161908257811
                376.04939420247632142491
                  1.25300664596153144004
                -51.97477302474178628700
                  2.75900973777141178545
                -11.74392644646590433410
                 -0.50778221518315369565
                125.48007992271848820565
                 58.70203748366557761074
                154.35041955242957101291
                -42.53776797237529905260
                 -1.01408410445689911583
                  0.16766674054524891013
                 -5.76851059409239752540
                 -0.13194191708188962586
                 -0.96510336504794214108
                  0.52466981281497582223
                  0.01139995910094078121
                 12.23668327394665311658
                 -0.63528564224422823248
                 -0.72136241269467782367
                 -3.15704280278465265752
                 -0.17338098820831343572
                  3.53094502701987078552
                  1.21686640365511333783
                 -1.08004091249858968915
                 -0.01165928255095766662
                 -9.29050990882952199001
                 -5.49763678053510140842
                 -6.23814778216503018626
                  2.10565055573326720406
                  0.31011722890149229226
                 -0.17703566644582979794
                 -1.48667686349039973592
                  0.00793523276732205525
                  0.26534254494606712704
                 -0.00530879622254065969
                  0.08257438493426345893
                 -1.59127687438582632318
                 -0.00212101639243631943
                  0.07441447826431209223
                  2.84100201694955378784
                  0.07787260366573846293
                 -0.60006876115085272527
                 -0.01421077521237612377
                 -0.21591892002172352605
                  0.04245567849208872757
                  0.47854494782672779563
                  0.13818949315242617937
                  2.71669603450494090424
                 -1.07124681559766066208
                 35.19527709916707891580
                 -1.60390814620100119470
                 10.32778108700902208739
                 -0.25067129680607830311
                  0.50396863922564749672
                 -2.06641611300675709373
                 -0.18599956241865661655
                  1.54046673434735814645
                 -1.28906464258949604584
                 -0.57322447423343092510
                 -9.27800016975784558326
                 -0.04855090055999732729
                 -3.28842136390944217439
                  0.21664757482984622894
                  5.90332355421332799494
                 -1.13923421323933671268
                 15.03896195978342120725
                  6.45816712531853198698
                 16.68919083436889749805
                 -2.45918141652945010378
               -116.87938217652718719819
                  3.03497870384026002810
                -18.19001895078651287463
                  0.74416370039930834768
                 -4.49015595637398501339
                  5.04524405342281223597
                 -0.46322877046853550009
                  1.08659777435171545079
                  6.72634260642221892823
                  1.76253271115291987314
                -36.63567432046570360171
                 -1.67387121181804565673
                  6.08779309284961911430
                 -2.68820455269431501932
                -16.28648168054638389890
                 -1.91437467561526220017
                -64.66690965201030394383
                -18.29218429385298350098
                -75.48171010355882515341
                 17.05441537653993933077
                  3.60994585572000481477
                  0.12625100790944687734
                 -7.27740528762772864724
                 -0.05452125935871007800
                 -0.08351001232705958233
                  0.00885854664837628855
                 -0.16970282917198004080
                 -4.72389462721895192487
                  0.26053504370919539079
                 -0.39860960091314989739
                 22.36587818351538814454
                  0.19465630378561410430
                 -1.01279741079055396469
                  0.14539834275737165137
                 -0.44276170533485414982
                 -0.05647873552579851797
                  7.31397691784846770702
                  2.45256519231351477472
                  2.54760999867815529640
                 -1.13646369827629389881
                 11.27095593059996581076
                 -0.26408402320217672088
                  8.17414003467590433161
                  0.03023188702854642460
                  0.76310481460515389163
                 -0.10947009709393019927
                 -0.01335462540851651073
                 -5.07496886117262402394
                  0.92085760673554506450
                 -0.59567856814169195534
                 -8.25263628540483473728
                 -0.17930056282883885532
                 -0.25634131264955406504
                 -0.08202109036230986749
                 -0.18945872637485236534
                  0.11433339276542339724
                  8.61561487037978857018
                 -1.39858457643169797890
                  0.49592593586336858325
                  0.57971883268370183462
                 -1.21857153375619131630
                 -0.27588361041336989521
                -36.95550872658303376284
                 -0.16925179527889683273
                 -1.44304060755251439829
                  0.48574055808910043819
                  0.09630752630800018532
                 13.55104220825240091131
                  0.86448505058781044408
                 -0.27696845582953888432
                 51.82367387304878292298
                 -0.23353380444858992671
                  1.66859675636841342516
                 -0.42920950949232283822
                 -0.88947517498913797329
                  0.92555225229455539981
                -10.52115738186241422625
                 -1.12592186427784390901
                 -2.42424857714479413673
                 -2.61238541167943161270
                 -6.63182886287855311025
                  0.75324608365716971825
                  2.01532780850587300847
                  0.27505343999019671308
                  3.84598124911938654691
                  0.80478163375084399433
                  0.83221741435569718259
                -31.45444567369304778026
                  1.32339196059637442815
                  6.49862044328628307710
                 23.24155765023365560751
                  1.32201335304369926860
                 -4.25371421072953470599
                  0.97953858262663062728
                 -0.59055864771202126740
                 -0.47773617788382538585
                 20.38927700562275902030
                  3.94915530098917688662
                 20.88874772432401982769
                  1.84003363521833307459
                 -0.67128372442845696266
                  0.06420220459280748249
                  0.76888663965963510716
                  0.04658038209082956960
                 -0.10776830634747747162
                 -0.10818399116624882739
                  0.03843451843474185448
                  1.12178193424455674432
                 -0.21317952358664224444
                  0.11777648666568936442
                  3.35928466264598668545
                 -0.14074816389694322361
                  0.08150525842046210667
                 -0.08565618867531367420
                  0.41505519167773702316
                  0.38081190496125322253
                 -1.77291919942267672816
                  2.41820268902605794992
                 -4.59239663704150746781
                  0.55561485554086520455
                 -1.10111931021876685577
                  0.11201058792203850978
                 -8.91664066518727516097
                 -0.01274267941791177791
                 -0.22280594732473663067
                  0.21650161669118797581
                  0.12913059707883420280
                 -0.79756144847274523801
                 -0.82611870831182876440
                  0.25587307568370565303
                 12.70355042962209246582
                 -0.08048023921219180088
                  0.30807393249879161390
                  0.14371595413232932104
                  0.09684716384375209597
                 -0.00223180567241419194
                  0.02875319898172959757
                 -0.26329768658292307393
                  4.33072357733382773404
                 -0.47244674529405628061
                 -1.53596935455401450987
                  0.12045596888675366709
                 -2.62313383016908874268
                 -0.03389328169574842148
                  0.17828028770071069342
                 -0.12915392394352961936
                 -0.09027333291893428757
                  1.98464874597834328718
                 -0.19661444037106814986
                 -0.00611996395077717744
                  5.90887174461924669089
                  0.29985148347445972350
                  0.36009231329672963806
                  0.14243154011296704775
                 -0.30048269918272463297
                 -0.13765303905553363806
                  0.42115883027690553808
                 -0.05924090357496553105
                 -4.04005449791059767506
                 -0.64956340699156411844
                  2.55488138561972766283
                  0.05316927280189985561
                 -1.96896164023698649892
                 -0.04956119853327092817
                 -0.19570009017781947458
                  0.00028444305051670735
                  0.03828015539893322994
                 -0.16065004267229235357
                 -0.57990007423921308138
                  0.11124247401962804316
                  1.74982773612289221887
                  0.07411909260997381899
                 -0.47534332648337768168
                  0.07084206854789217023
                  0.08682634895744895109
                  0.01405337686970031634
                  0.68814109071436191378
                  0.40726468477976712768
                  1.60522455300625987995
                 -0.16360492379846225397
                  8.15252884801738630927
                 -0.57807751256296791009
                -12.49002925650890638565
                  0.28255212970735027467
                 -3.23395051954409984418
                 -0.06056667967318479784
                  0.68082466638662009206
                 39.84800494182629648776
                 -4.52936948925623728002
                  0.38171538965871909532
                 -6.44921788100824588952
                 -0.26294652087683190178
                  4.49462561246619252131
                  0.03922865371275322671
                  0.47510697969490434112
                  0.83110569807990686275
                -16.75454318237776263345
                 -8.43248749102996164595
                 -6.49679804252909320894
                 -0.59108303107360837814
                  2.68194363211734776442
                  0.11506337620855434933
                 -6.27435821898578627298
                 -0.11853416475309319633
                 -0.39572430065996999637
                  0.34240953329887041656
                  0.03740612991564024048
                 -4.70091907094842920145
                 -0.09756093404478999309
                  0.05478601220950879425
                 15.08030300769183007503
                 -0.16077715943865522608
                 -1.73833667597782959291
                  0.11868716754622686549
                  0.32515785446959566407
                 -0.28971256371015191577
                  3.01827996159143863153
                  1.65570875192303024193
                  4.31203989916135643767
                 -0.75872308319961800915
                -16.10093254446504218436
                  0.51523273881555631259
                  8.13388654404664634967
                  0.10071929311523825090
                 -1.61524872851663792162
                  0.94702918972169058964
                 -0.07875000170447035708
                 -7.34913195570503141596
                  1.52629904908206248670
                  0.43254385393730609977
                -13.46473316036517076100
                  0.44391528719420964011
                 -2.63659984099796984580
                 -1.46043172232634055341
                 -3.29619447426764278219
                 -0.15098967183013850546
                -11.16390453180178177206
                  2.53786366249284833785
                  0.53194062060408964232
                  1.65743904637244199307
                 -0.75273513570279804163
                 -0.17170143783777558344
                 -4.56519627996548837956
                  0.02765158569105206215
                  0.18682430472305136537
                 -0.26274058842559205873
                  0.04436595800824430502
                  4.03837702094138428777
                 -0.02266085201245555264
                 -0.01628909776133260351
                  7.70848623375607733266
                  0.02004919969122552492
                  1.28586215951842230965
                 -0.08698180402065837369
                  0.15027821057581092212
                  0.21044397652010021771
                 -1.51417228379039126018
                 -0.08436171283770341200
                 -2.15725753088214489139
                  0.17785705124894013451
                  3.27454662514511296578
                  0.31833934857473444868
                 -1.55795796126976204832
                  0.03704043832118675272
                 -0.24885556168375697061
                  0.09914466287252420018
                 -0.01498795692332360180
                  2.54829795455417906780
                 -0.16186150167071103323
                  0.10808166770632061937
                  1.26002854920538975847
                  0.00201848259546541595
                  0.45078828195764036879
                  0.01025224656977802469
                  0.78424605515654421950
                  0.31395339525488358268
                 -1.75611801262535194290
                 -1.26225612609724469060
                  5.76715758446627724254
                 -0.41280476524408249439
                  0.23173084930914711332
                  0.59108440018530250537
                 -0.00065444678604181241
                  0.24233395722957903895
                 -1.00863066422858760340
                 -0.01491928826524825148
                 -0.00265468206222193833
                  0.55098317104687843937
                 -0.51876874642520065528
                 -0.09886373243548018941
                 -0.00661524105497131049
                  0.63320720226039051148
                  0.58879578032295021295
                  0.76620286684863281312
                 -1.15385825556416365956
                  0.02898548214589102487
                  0.37720819743336791996
                  0.04027938197971583228
                  0.76378706570678622789
                 -0.65572963887798263460
